<?xml version="1.0"?>
<opencv_storage>
<stage0>
  <maxWeakCount>10</maxWeakCount>
  <stageThreshold>-1.0599695444107056e+00</stageThreshold>
  <weakClassifiers>
    <_>
      <internalNodes>
        0 -1 112932 1.8130717799067497e-02</internalNodes>
      <leafValues>
        -3.9121952652931213e-01 7.6253968477249146e-01</leafValues></_>
    <_>
      <internalNodes>
        0 -1 103773 -1.6079315915703773e-02</internalNodes>
      <leafValues>
        5.7610505819320679e-01 -4.2825898528099060e-01</leafValues></_>
    <_>
      <internalNodes>
        0 -1 81245 -7.4892774224281311e-02</internalNodes>
      <leafValues>
        5.2315169572830200e-01 -2.5890788435935974e-01</leafValues></_>
    <_>
      <internalNodes>
        0 -1 70692 4.9675600603222847e-03</internalNodes>
      <leafValues>
        -1.7807932198047638e-01 5.3041374683380127e-01</leafValues></_>
    <_>
      <internalNodes>
        0 -1 106777 -1.7120917327702045e-03</internalNodes>
      <leafValues>
        5.0282645225524902e-01 -2.5367447733879089e-01</leafValues></_>
    <_>
      <internalNodes>
        0 -1 132602 -3.9701052010059357e-03</internalNodes>
      <leafValues>
        3.9144921302795410e-01 -2.5236007571220398e-01</leafValues></_>
    <_>
      <internalNodes>
        0 -1 138286 1.5193695435300469e-03</internalNodes>
      <leafValues>
        -3.0444434285163879e-01 5.0313913822174072e-01</leafValues></_>
    <_>
      <internalNodes>
        0 -1 88722 4.5011136680841446e-03</internalNodes>
      <leafValues>
        1.1390090733766556e-01 -7.2017598152160645e-01</leafValues></_>
    <_>
      <internalNodes>
        0 -1 76339 -3.1633982434868813e-03</internalNodes>
      <leafValues>
        4.7392129898071289e-01 -2.1020565927028656e-01</leafValues></_>
    <_>
      <internalNodes>
        0 -1 127161 -1.2284552678465843e-02</internalNodes>
      <leafValues>
        4.5947051048278809e-01 -1.8665181100368500e-01</leafValues></_></weakClassifiers></stage0>
</opencv_storage>
