<?xml version="1.0"?>
<opencv_storage>
<stage1>
  <maxWeakCount>10</maxWeakCount>
  <stageThreshold>-1.0453686714172363e+00</stageThreshold>
  <weakClassifiers>
    <_>
      <internalNodes>
        0 -1 29973 -2.2907496988773346e-01</internalNodes>
      <leafValues>
        7.5932979583740234e-01 -1.5306915342807770e-01</leafValues></_>
    <_>
      <internalNodes>
        0 -1 127634 -1.7162165022455156e-04</internalNodes>
      <leafValues>
        3.8358590006828308e-01 -5.6348377466201782e-01</leafValues></_>
    <_>
      <internalNodes>
        0 -1 108235 -2.9273615218698978e-03</internalNodes>
      <leafValues>
        4.7645255923271179e-01 -4.0950620174407959e-01</leafValues></_>
    <_>
      <internalNodes>
        0 -1 109833 -6.1533099506050348e-04</internalNodes>
      <leafValues>
        2.9268127679824829e-01 -5.2649486064910889e-01</leafValues></_>
    <_>
      <internalNodes>
        0 -1 87671 -9.6562653779983521e-03</internalNodes>
      <leafValues>
        -8.9765989780426025e-01 1.6163279116153717e-01</leafValues></_>
    <_>
      <internalNodes>
        0 -1 87295 5.5595515295863152e-03</internalNodes>
      <leafValues>
        2.1481691300868988e-01 -8.0835485458374023e-01</leafValues></_>
    <_>
      <internalNodes>
        0 -1 94453 1.8646858632564545e-02</internalNodes>
      <leafValues>
        1.2154559046030045e-01 -9.3518763780593872e-01</leafValues></_>
    <_>
      <internalNodes>
        0 -1 106773 4.0501290932297707e-03</internalNodes>
      <leafValues>
        -2.8387215733528137e-01 5.5824077129364014e-01</leafValues></_>
    <_>
      <internalNodes>
        0 -1 111083 -5.0411699339747429e-03</internalNodes>
      <leafValues>
        -8.8941699266433716e-01 1.3702663779258728e-01</leafValues></_>
    <_>
      <internalNodes>
        0 -1 97202 9.1236455773469061e-05</internalNodes>
      <leafValues>
        -4.8558896780014038e-01 2.6154378056526184e-01</leafValues></_></weakClassifiers></stage1>
</opencv_storage>
