<?xml version="1.0"?>
<opencv_storage>
<stage2>
  <maxWeakCount>12</maxWeakCount>
  <stageThreshold>-1.1748920679092407e+00</stageThreshold>
  <weakClassifiers>
    <_>
      <internalNodes>
        0 -1 45767 -1.5422824025154114e-01</internalNodes>
      <leafValues>
        8.0862742662429810e-01 -1.7433962225914001e-01</leafValues></_>
    <_>
      <internalNodes>
        0 -1 132136 5.4590050131082535e-03</internalNodes>
      <leafValues>
        -5.2658426761627197e-01 3.3220171928405762e-01</leafValues></_>
    <_>
      <internalNodes>
        0 -1 108681 -4.4298604130744934e-02</internalNodes>
      <leafValues>
        7.1427941322326660e-01 -1.9737306237220764e-01</leafValues></_>
    <_>
      <internalNodes>
        0 -1 138124 -1.0208138701273128e-04</internalNodes>
      <leafValues>
        -5.3187930583953857e-01 2.5723800063133240e-01</leafValues></_>
    <_>
      <internalNodes>
        0 -1 114327 -7.9017278039827943e-04</internalNodes>
      <leafValues>
        -5.0172168016433716e-01 1.6146366298198700e-01</leafValues></_>
    <_>
      <internalNodes>
        0 -1 133331 -1.9216390792280436e-03</internalNodes>
      <leafValues>
        -6.4329046010971069e-01 1.3094657659530640e-01</leafValues></_>
    <_>
      <internalNodes>
        0 -1 133392 -1.2394733494147658e-03</internalNodes>
      <leafValues>
        -8.0383545160293579e-01 1.0632675141096115e-01</leafValues></_>
    <_>
      <internalNodes>
        0 -1 146876 -1.0681596584618092e-02</internalNodes>
      <leafValues>
        7.0666527748107910e-01 -1.5888722240924835e-01</leafValues></_>
    <_>
      <internalNodes>
        0 -1 147258 6.6751465201377869e-03</internalNodes>
      <leafValues>
        -2.1223428845405579e-01 5.4831826686859131e-01</leafValues></_>
    <_>
      <internalNodes>
        0 -1 87711 7.0720817893743515e-03</internalNodes>
      <leafValues>
        -4.3284904956817627e-01 2.4979057908058167e-01</leafValues></_>
    <_>
      <internalNodes>
        0 -1 127620 -2.8776270337402821e-03</internalNodes>
      <leafValues>
        -7.4420225620269775e-01 1.1337026953697205e-01</leafValues></_>
    <_>
      <internalNodes>
        0 -1 80733 1.5447968617081642e-03</internalNodes>
      <leafValues>
        -3.1740826368331909e-01 3.0902150273323059e-01</leafValues></_></weakClassifiers></stage2>
</opencv_storage>
