<?xml version="1.0"?>
<opencv_storage>
<stage10>
  <maxWeakCount>26</maxWeakCount>
  <stageThreshold>-8.5748785734176636e-01</stageThreshold>
  <weakClassifiers>
    <_>
      <internalNodes>
        0 -1 106773 3.6279894411563873e-03</internalNodes>
      <leafValues>
        -4.0482342243194580e-02 5.8860319852828979e-01</leafValues></_>
    <_>
      <internalNodes>
        0 -1 67277 -2.6689888909459114e-02</internalNodes>
      <leafValues>
        4.7639572620391846e-01 -1.8055747449398041e-01</leafValues></_>
    <_>
      <internalNodes>
        0 -1 126381 2.9496564529836178e-03</internalNodes>
      <leafValues>
        1.3079984486103058e-01 -5.4355984926223755e-01</leafValues></_>
    <_>
      <internalNodes>
        0 -1 84285 -1.4180829748511314e-02</internalNodes>
      <leafValues>
        1.6737914085388184e-01 -3.5475996136665344e-01</leafValues></_>
    <_>
      <internalNodes>
        0 -1 136504 -6.9163022562861443e-03</internalNodes>
      <leafValues>
        5.4519790410995483e-01 -1.1287567764520645e-01</leafValues></_>
    <_>
      <internalNodes>
        0 -1 136790 1.5082138124853373e-03</internalNodes>
      <leafValues>
        -1.4903935790061951e-01 4.4232112169265747e-01</leafValues></_>
    <_>
      <internalNodes>
        0 -1 125065 3.2343338243663311e-03</internalNodes>
      <leafValues>
        -1.3032628595829010e-01 4.1062554717063904e-01</leafValues></_>
    <_>
      <internalNodes>
        0 -1 98126 -2.2864998318254948e-03</internalNodes>
      <leafValues>
        -5.9086424112319946e-01 7.5126297771930695e-02</leafValues></_>
    <_>
      <internalNodes>
        0 -1 138095 -3.2297329744324088e-04</internalNodes>
      <leafValues>
        1.8915051221847534e-01 -2.6532000303268433e-01</leafValues></_>
    <_>
      <internalNodes>
        0 -1 138456 1.6765465261414647e-05</internalNodes>
      <leafValues>
        -5.1196521520614624e-01 1.0955771803855896e-01</leafValues></_>
    <_>
      <internalNodes>
        0 -1 138908 -7.9892557114362717e-03</internalNodes>
      <leafValues>
        6.4951241016387939e-01 -9.1012246906757355e-02</leafValues></_>
    <_>
      <internalNodes>
        0 -1 138275 -1.4649418517365120e-05</internalNodes>
      <leafValues>
        2.6316374540328979e-01 -2.0872956514358521e-01</leafValues></_>
    <_>
      <internalNodes>
        0 -1 106757 2.5650816969573498e-03</internalNodes>
      <leafValues>
        -1.2125306576490402e-01 4.3121960759162903e-01</leafValues></_>
    <_>
      <internalNodes>
        0 -1 127844 3.6621946492232382e-05</internalNodes>
      <leafValues>
        -3.3796411752700806e-01 1.7016007006168365e-01</leafValues></_>
    <_>
      <internalNodes>
        0 -1 12563 5.7474570348858833e-03</internalNodes>
      <leafValues>
        1.1160415410995483e-01 -4.3419849872589111e-01</leafValues></_>
    <_>
      <internalNodes>
        0 -1 121424 1.1386756086722016e-03</internalNodes>
      <leafValues>
        1.2348953634500504e-01 -4.1591387987136841e-01</leafValues></_>
    <_>
      <internalNodes>
        0 -1 137891 -1.1483456008136272e-02</internalNodes>
      <leafValues>
        -6.4694529771804810e-01 6.8841010332107544e-02</leafValues></_>
    <_>
      <internalNodes>
        0 -1 139006 -1.3583003237727098e-05</internalNodes>
      <leafValues>
        2.0269973576068878e-01 -2.7237015962600708e-01</leafValues></_>
    <_>
      <internalNodes>
        0 -1 133518 1.9873082637786865e-03</internalNodes>
      <leafValues>
        -2.1259300410747528e-01 3.0658650398254395e-01</leafValues></_>
    <_>
      <internalNodes>
        0 -1 76299 -6.9985836744308472e-03</internalNodes>
      <leafValues>
        4.7007939219474792e-01 -1.2621806561946869e-01</leafValues></_>
    <_>
      <internalNodes>
        0 -1 133667 -1.4865970115351956e-05</internalNodes>
      <leafValues>
        2.3827765882015228e-01 -2.7754068374633789e-01</leafValues></_>
    <_>
      <internalNodes>
        0 -1 126679 8.4022455848753452e-04</internalNodes>
      <leafValues>
        -3.8315647840499878e-01 1.7445141077041626e-01</leafValues></_>
    <_>
      <internalNodes>
        0 -1 48342 6.7191012203693390e-02</internalNodes>
      <leafValues>
        -6.2695011496543884e-02 8.2445144653320312e-01</leafValues></_>
    <_>
      <internalNodes>
        0 -1 96484 -5.1915911026299000e-03</internalNodes>
      <leafValues>
        2.6839634776115417e-01 -2.1577636897563934e-01</leafValues></_>
    <_>
      <internalNodes>
        0 -1 113096 -5.7385452091693878e-03</internalNodes>
      <leafValues>
        -6.9188696146011353e-01 8.4523610770702362e-02</leafValues></_>
    <_>
      <internalNodes>
        0 -1 73077 4.1595324873924255e-03</internalNodes>
      <leafValues>
        -1.0500970482826233e-01 5.3324109315872192e-01</leafValues></_></weakClassifiers></stage10>
</opencv_storage>
