<?xml version="1.0"?>
<opencv_storage>
<stage9>
  <maxWeakCount>79</maxWeakCount>
  <stageThreshold>-8.7419945001602173e-01</stageThreshold>
  <weakClassifiers>
    <_>
      <internalNodes>
        0 -1 10281 -3.7163174152374268e-01</internalNodes>
      <leafValues>
        7.8320312500000000e-01 2.0062555372714996e-01</leafValues></_>
    <_>
      <internalNodes>
        0 -1 114377 5.3612822666764259e-03</internalNodes>
      <leafValues>
        -7.4613407254219055e-02 4.0963810682296753e-01</leafValues></_>
    <_>
      <internalNodes>
        0 -1 111828 -1.1607236228883266e-03</internalNodes>
      <leafValues>
        1.7511318624019623e-01 -1.8620440363883972e-01</leafValues></_>
    <_>
      <internalNodes>
        0 -1 77607 -2.6385660748928785e-03</internalNodes>
      <leafValues>
        9.3022190034389496e-02 -3.0963933467864990e-01</leafValues></_>
    <_>
      <internalNodes>
        0 -1 79997 3.5774827003479004e-02</internalNodes>
      <leafValues>
        -1.2701694667339325e-01 2.1929538249969482e-01</leafValues></_>
    <_>
      <internalNodes>
        0 -1 89811 5.0694565288722515e-04</internalNodes>
      <leafValues>
        1.0884346812963486e-01 -2.9881975054740906e-01</leafValues></_>
    <_>
      <internalNodes>
        0 -1 138281 1.5683901729062200e-03</internalNodes>
      <leafValues>
        -1.8456307053565979e-01 1.3551752269268036e-01</leafValues></_>
    <_>
      <internalNodes>
        0 -1 123856 6.3072484917938709e-03</internalNodes>
      <leafValues>
        -5.9438895434141159e-02 3.4608179330825806e-01</leafValues></_>
    <_>
      <internalNodes>
        0 -1 117868 3.5435436293482780e-03</internalNodes>
      <leafValues>
        -9.8887272179126740e-02 3.6077669262886047e-01</leafValues></_>
    <_>
      <internalNodes>
        0 -1 98652 5.4528680630028248e-04</internalNodes>
      <leafValues>
        9.1073438525199890e-02 -3.0204221606254578e-01</leafValues></_>
    <_>
      <internalNodes>
        0 -1 89906 -1.5904845204204321e-03</internalNodes>
      <leafValues>
        -3.0629780888557434e-01 8.2778863608837128e-02</leafValues></_>
    <_>
      <internalNodes>
        0 -1 91985 1.3398062437772751e-02</internalNodes>
      <leafValues>
        -1.0142932087182999e-01 2.3112189769744873e-01</leafValues></_>
    <_>
      <internalNodes>
        0 -1 93117 1.9910959526896477e-03</internalNodes>
      <leafValues>
        -8.5839703679084778e-02 2.7718085050582886e-01</leafValues></_>
    <_>
      <internalNodes>
        0 -1 114412 -4.3853253009729087e-04</internalNodes>
      <leafValues>
        -2.9168802499771118e-01 9.1814525425434113e-02</leafValues></_>
    <_>
      <internalNodes>
        0 -1 132085 7.4118212796747684e-03</internalNodes>
      <leafValues>
        3.2867625355720520e-02 -5.5326581001281738e-01</leafValues></_>
    <_>
      <internalNodes>
        0 -1 68856 7.4909932911396027e-02</internalNodes>
      <leafValues>
        3.1308416277170181e-02 -6.8425583839416504e-01</leafValues></_>
    <_>
      <internalNodes>
        0 -1 89086 -1.4084215508773923e-03</internalNodes>
      <leafValues>
        -4.4437041878700256e-01 4.4336643069982529e-02</leafValues></_>
    <_>
      <internalNodes>
        0 -1 119884 1.1204794645891525e-05</internalNodes>
      <leafValues>
        -1.4126709103584290e-01 1.4788982272148132e-01</leafValues></_>
    <_>
      <internalNodes>
        0 -1 96462 4.6276897192001343e-03</internalNodes>
      <leafValues>
        4.3972864747047424e-02 -5.0547313690185547e-01</leafValues></_>
    <_>
      <internalNodes>
        0 -1 73077 2.7877357788383961e-03</internalNodes>
      <leafValues>
        -7.2937324643135071e-02 2.8538015484809875e-01</leafValues></_>
    <_>
      <internalNodes>
        0 -1 92104 4.8202481120824814e-03</internalNodes>
      <leafValues>
        8.1267885863780975e-02 -2.4830378592014313e-01</leafValues></_>
    <_>
      <internalNodes>
        0 -1 130538 3.7341834977269173e-03</internalNodes>
      <leafValues>
        -5.6932009756565094e-02 3.4696418046951294e-01</leafValues></_>
    <_>
      <internalNodes>
        0 -1 74461 -1.9791491795331240e-03</internalNodes>
      <leafValues>
        2.5533965229988098e-01 -7.7859409153461456e-02</leafValues></_>
    <_>
      <internalNodes>
        0 -1 80471 -6.0989998746663332e-04</internalNodes>
      <leafValues>
        -2.0649991929531097e-01 9.6605211496353149e-02</leafValues></_>
    <_>
      <internalNodes>
        0 -1 21079 3.0907612293958664e-02</internalNodes>
      <leafValues>
        -1.1013147979974747e-01 1.8941682577133179e-01</leafValues></_>
    <_>
      <internalNodes>
        0 -1 79890 1.1204794645891525e-05</internalNodes>
      <leafValues>
        -1.2904997169971466e-01 1.9264933466911316e-01</leafValues></_>
    <_>
      <internalNodes>
        0 -1 96809 1.8985687347594649e-05</internalNodes>
      <leafValues>
        -1.4471544325351715e-01 1.4463673532009125e-01</leafValues></_>
    <_>
      <internalNodes>
        0 -1 48032 -1.3057486712932587e-01</internalNodes>
      <leafValues>
        6.8580251932144165e-01 -3.1859669834375381e-02</leafValues></_>
    <_>
      <internalNodes>
        0 -1 129807 5.6388336233794689e-03</internalNodes>
      <leafValues>
        -6.6135503351688385e-02 2.7694094181060791e-01</leafValues></_>
    <_>
      <internalNodes>
        0 -1 161975 1.1153595987707376e-03</internalNodes>
      <leafValues>
        6.7201532423496246e-02 -3.0305597186088562e-01</leafValues></_>
    <_>
      <internalNodes>
        0 -1 161886 -1.6792092937976122e-03</internalNodes>
      <leafValues>
        -2.7041923999786377e-01 6.8887010216712952e-02</leafValues></_>
    <_>
      <internalNodes>
        0 -1 138807 6.7743333056569099e-04</internalNodes>
      <leafValues>
        -1.1125350743532181e-01 1.7547701299190521e-01</leafValues></_>
    <_>
      <internalNodes>
        0 -1 104082 -1.6355350613594055e-02</internalNodes>
      <leafValues>
        -4.3737012147903442e-01 4.2928118258714676e-02</leafValues></_>
    <_>
      <internalNodes>
        0 -1 105374 9.3439884949475527e-04</internalNodes>
      <leafValues>
        -8.6773745715618134e-02 2.1273563802242279e-01</leafValues></_>
    <_>
      <internalNodes>
        0 -1 106489 3.3735959732439369e-05</internalNodes>
      <leafValues>
        -2.0037908852100372e-01 9.9758930504322052e-02</leafValues></_>
    <_>
      <internalNodes>
        0 -1 106699 -1.6375001287087798e-03</internalNodes>
      <leafValues>
        1.8303988873958588e-01 -1.0958074778318405e-01</leafValues></_>
    <_>
      <internalNodes>
        0 -1 114311 1.5201711794361472e-03</internalNodes>
      <leafValues>
        -9.5219984650611877e-02 2.9840794205665588e-01</leafValues></_>
    <_>
      <internalNodes>
        0 -1 37962 6.7899737041443586e-04</internalNodes>
      <leafValues>
        6.6139303147792816e-02 -3.2875856757164001e-01</leafValues></_>
    <_>
      <internalNodes>
        0 -1 37791 -8.0991623690351844e-04</internalNodes>
      <leafValues>
        -2.4512992799282074e-01 8.4567211568355560e-02</leafValues></_>
    <_>
      <internalNodes>
        0 -1 78664 -4.0227444842457771e-03</internalNodes>
      <leafValues>
        2.1183985471725464e-01 -9.0386889874935150e-02</leafValues></_>
    <_>
      <internalNodes>
        0 -1 127494 -2.2601545788347721e-03</internalNodes>
      <leafValues>
        1.6988793015480042e-01 -1.2529411911964417e-01</leafValues></_>
    <_>
      <internalNodes>
        0 -1 133263 5.7354377349838614e-04</internalNodes>
      <leafValues>
        -1.6762721538543701e-01 1.5650577843189240e-01</leafValues></_>
    <_>
      <internalNodes>
        0 -1 149800 1.1575431376695633e-01</internalNodes>
      <leafValues>
        -2.7283916249871254e-02 6.9927608966827393e-01</leafValues></_>
    <_>
      <internalNodes>
        0 -1 121233 5.0342110625933856e-05</internalNodes>
      <leafValues>
        -1.6753119230270386e-01 1.2745535373687744e-01</leafValues></_>
    <_>
      <internalNodes>
        0 -1 82719 -1.6158046200871468e-03</internalNodes>
      <leafValues>
        1.5833090245723724e-01 -1.2528599798679352e-01</leafValues></_>
    <_>
      <internalNodes>
        0 -1 81330 1.3683008961379528e-02</internalNodes>
      <leafValues>
        -6.2921024858951569e-02 3.5232818126678467e-01</leafValues></_>
    <_>
      <internalNodes>
        0 -1 94816 1.4258986338973045e-02</internalNodes>
      <leafValues>
        4.0555030107498169e-02 -5.2202081680297852e-01</leafValues></_>
    <_>
      <internalNodes>
        0 -1 120939 3.2945072744041681e-03</internalNodes>
      <leafValues>
        4.2013179510831833e-02 -4.4920593500137329e-01</leafValues></_>
    <_>
      <internalNodes>
        0 -1 49466 -4.8509184271097183e-03</internalNodes>
      <leafValues>
        -2.0877209305763245e-01 9.3320131301879883e-02</leafValues></_>
    <_>
      <internalNodes>
        0 -1 159689 -4.6030450612306595e-03</internalNodes>
      <leafValues>
        -3.8846850395202637e-01 5.1203899085521698e-02</leafValues></_>
    <_>
      <internalNodes>
        0 -1 320 5.9802848845720291e-03</internalNodes>
      <leafValues>
        6.4472757279872894e-02 -2.9122823476791382e-01</leafValues></_>
    <_>
      <internalNodes>
        0 -1 160542 -1.1420178452681284e-05</internalNodes>
      <leafValues>
        1.4227502048015594e-01 -1.3360098004341125e-01</leafValues></_>
    <_>
      <internalNodes>
        0 -1 111434 1.2701698578894138e-03</internalNodes>
      <leafValues>
        -1.0699869692325592e-01 1.7634627223014832e-01</leafValues></_>
    <_>
      <internalNodes>
        0 -1 49055 -6.5082684159278870e-03</internalNodes>
      <leafValues>
        2.4962142109870911e-01 -7.6522417366504669e-02</leafValues></_>
    <_>
      <internalNodes>
        0 -1 143201 1.3971936423331499e-03</internalNodes>
      <leafValues>
        -1.3545444607734680e-01 1.4270724356174469e-01</leafValues></_>
    <_>
      <internalNodes>
        0 -1 131587 3.0251342803239822e-02</internalNodes>
      <leafValues>
        -3.5898175090551376e-02 5.4350942373275757e-01</leafValues></_>
    <_>
      <internalNodes>
        0 -1 93860 7.3435017839074135e-03</internalNodes>
      <leafValues>
        6.3536725938320160e-02 -3.3580353856086731e-01</leafValues></_>
    <_>
      <internalNodes>
        0 -1 38065 -1.1823773384094238e-03</internalNodes>
      <leafValues>
        -2.0937553048133850e-01 8.7354339659214020e-02</leafValues></_>
    <_>
      <internalNodes>
        0 -1 65969 -6.7145437002182007e-02</internalNodes>
      <leafValues>
        -4.5102447271347046e-01 4.0565095841884613e-02</leafValues></_>
    <_>
      <internalNodes>
        0 -1 113018 1.3556685298681259e-02</internalNodes>
      <leafValues>
        2.9144154861569405e-02 -6.2349319458007812e-01</leafValues></_>
    <_>
      <internalNodes>
        0 -1 139230 4.0431399829685688e-03</internalNodes>
      <leafValues>
        3.8638565689325333e-02 -4.6092751622200012e-01</leafValues></_>
    <_>
      <internalNodes>
        0 -1 138628 1.1100198607891798e-03</internalNodes>
      <leafValues>
        -1.6689968109130859e-01 1.1188994348049164e-01</leafValues></_>
    <_>
      <internalNodes>
        0 -1 138325 -2.5325809838250279e-04</internalNodes>
      <leafValues>
        1.9221229851245880e-01 -1.1864669620990753e-01</leafValues></_>
    <_>
      <internalNodes>
        0 -1 89065 -1.8151181284338236e-03</internalNodes>
      <leafValues>
        1.6556490957736969e-01 -1.1450219899415970e-01</leafValues></_>
    <_>
      <internalNodes>
        0 -1 106889 7.4835591949522495e-03</internalNodes>
      <leafValues>
        -4.2900346219539642e-02 4.2664068937301636e-01</leafValues></_>
    <_>
      <internalNodes>
        0 -1 128200 2.5987429544329643e-03</internalNodes>
      <leafValues>
        7.2154447436332703e-02 -2.4560478329658508e-01</leafValues></_>
    <_>
      <internalNodes>
        0 -1 121928 -8.7842987850308418e-03</internalNodes>
      <leafValues>
        3.1542351841926575e-01 -6.1980973929166794e-02</leafValues></_>
    <_>
      <internalNodes>
        0 -1 109653 4.4529861770570278e-03</internalNodes>
      <leafValues>
        -6.3910081982612610e-02 2.9047715663909912e-01</leafValues></_>
    <_>
      <internalNodes>
        0 -1 102208 -2.7960094157606363e-03</internalNodes>
      <leafValues>
        2.6234742999076843e-01 -7.2860620915889740e-02</leafValues></_>
    <_>
      <internalNodes>
        0 -1 144029 -4.9268500879406929e-04</internalNodes>
      <leafValues>
        -2.6128393411636353e-01 7.8822381794452667e-02</leafValues></_>
    <_>
      <internalNodes>
        0 -1 89343 -1.3886280357837677e-03</internalNodes>
      <leafValues>
        -2.6522552967071533e-01 7.1400947868824005e-02</leafValues></_>
    <_>
      <internalNodes>
        0 -1 89781 3.8704453036189079e-03</internalNodes>
      <leafValues>
        -6.9976918399333954e-02 2.9985678195953369e-01</leafValues></_>
    <_>
      <internalNodes>
        0 -1 133677 2.2391453385353088e-03</internalNodes>
      <leafValues>
        -5.7995803654193878e-02 3.1935456395149231e-01</leafValues></_>
    <_>
      <internalNodes>
        0 -1 114141 -4.9200709909200668e-03</internalNodes>
      <leafValues>
        -7.0103067159652710e-01 3.0930971726775169e-02</leafValues></_>
    <_>
      <internalNodes>
        0 -1 138888 7.0706298574805260e-03</internalNodes>
      <leafValues>
        1.5169292688369751e-02 -8.5788309574127197e-01</leafValues></_>
    <_>
      <internalNodes>
        0 -1 58521 -9.1080758720636368e-03</internalNodes>
      <leafValues>
        5.8097296953201294e-01 -3.4053236246109009e-02</leafValues></_>
    <_>
      <internalNodes>
        0 -1 133415 2.6117227389477193e-04</internalNodes>
      <leafValues>
        -1.5622928738594055e-01 1.1475253850221634e-01</leafValues></_>
    <_>
      <internalNodes>
        0 -1 127608 7.6331279706209898e-04</internalNodes>
      <leafValues>
        -1.1177235841751099e-01 2.0082332193851471e-01</leafValues></_>
    <_>
      <internalNodes>
        0 -1 120782 -4.2066127061843872e-03</internalNodes>
      <leafValues>
        1.4926926791667938e-01 -1.3388025760650635e-01</leafValues></_></weakClassifiers></stage9>
</opencv_storage>
