<?xml version="1.0"?>
<opencv_storage>
<stage0>
  <maxWeakCount>12</maxWeakCount>
  <stageThreshold>-1.1639943122863770e+00</stageThreshold>
  <weakClassifiers>
    <_>
      <internalNodes>
        0 -1 112932 1.3853188604116440e-02</internalNodes>
      <leafValues>
        -4.6216768026351929e-01 7.3476296663284302e-01</leafValues></_>
    <_>
      <internalNodes>
        0 -1 94943 -1.3630930334329605e-02</internalNodes>
      <leafValues>
        5.3770208358764648e-01 -4.8344144225120544e-01</leafValues></_>
    <_>
      <internalNodes>
        0 -1 80736 4.2931269854307175e-03</internalNodes>
      <leafValues>
        -2.1144844591617584e-01 5.6392514705657959e-01</leafValues></_>
    <_>
      <internalNodes>
        0 -1 71374 -4.0553428232669830e-02</internalNodes>
      <leafValues>
        4.5773911476135254e-01 -2.1210633218288422e-01</leafValues></_>
    <_>
      <internalNodes>
        0 -1 114391 -2.5480489712208509e-03</internalNodes>
      <leafValues>
        5.4791724681854248e-01 -2.4050043523311615e-01</leafValues></_>
    <_>
      <internalNodes>
        0 -1 111916 -5.0938613712787628e-03</internalNodes>
      <leafValues>
        2.9227790236473083e-01 -3.0999469757080078e-01</leafValues></_>
    <_>
      <internalNodes>
        0 -1 111438 -1.8455564277246594e-03</internalNodes>
      <leafValues>
        4.4667291641235352e-01 -2.0487064123153687e-01</leafValues></_>
    <_>
      <internalNodes>
        0 -1 126683 -7.5698960572481155e-03</internalNodes>
      <leafValues>
        4.2408567667007446e-01 -2.1101170778274536e-01</leafValues></_>
    <_>
      <internalNodes>
        0 -1 132456 -4.7735385596752167e-02</internalNodes>
      <leafValues>
        7.3102128505706787e-01 -1.1134900897741318e-01</leafValues></_>
    <_>
      <internalNodes>
        0 -1 68586 -1.7682036850601435e-03</internalNodes>
      <leafValues>
        3.7077972292900085e-01 -2.4763354659080505e-01</leafValues></_>
    <_>
      <internalNodes>
        0 -1 69939 -2.7398470789194107e-02</internalNodes>
      <leafValues>
        6.7786204814910889e-01 -9.9822595715522766e-02</leafValues></_>
    <_>
      <internalNodes>
        0 -1 96576 1.0940292850136757e-02</internalNodes>
      <leafValues>
        -2.7296993136405945e-01 2.5270611047744751e-01</leafValues></_></weakClassifiers></stage0>
</opencv_storage>
